iteration,mean_w1,mean_w2
0,0.0,0.0
1,-0.017042715848811948,0.00657941921007334
2,-0.017042715848811948,0.00657941921007334
3,0.009045037147092982,0.07264193313474836
4,0.009045037147092982,0.07264193313474836
5,0.009045037147092982,0.07264193313474836
6,0.009045037147092982,0.07264193313474836
7,-0.003041017407433885,0.06239398627007244
8,-0.003041017407433885,0.06239398627007244
9,-0.003041017407433885,0.06239398627007244
10,-0.003041017407433885,0.06239398627007244
11,-0.06362294009132331,0.012138594493084966
12,-0.06362294009132331,0.012138594493084966
13,-0.06362294009132331,0.012138594493084966
14,-0.06362294009132331,0.012138594493084966
15,-0.06362294009132331,0.012138594493084966
16,-0.030308390982343506,0.05539919976102998
17,-0.030308390982343506,0.05539919976102998
18,-0.030308390982343506,0.05539919976102998
19,-0.030308390982343506,0.05539919976102998
20,-0.05254331407623755,0.03550482206602021
21,-0.05254331407623755,0.03550482206602021
22,-0.05254331407623755,0.03550482206602021
23,-0.05254331407623755,0.03550482206602021
24,-0.05254331407623755,0.03550482206602021
25,-0.05254331407623755,0.03550482206602021
26,-0.05254331407623755,0.03550482206602021
27,0.01049700606828441,0.10704730462928018
28,-0.061868024257101466,0.09922494896942523
29,-0.061868024257101466,0.09922494896942523
30,-0.061868024257101466,0.09922494896942523
31,-0.061868024257101466,0.09922494896942523
32,-0.061868024257101466,0.09922494896942523
33,-0.10866725022835501,0.06119398765432155
34,-0.10866725022835501,0.06119398765432155
35,-0.10866725022835501,0.06119398765432155
36,-0.10866725022835501,0.06119398765432155
37,-0.10866725022835501,0.06119398765432155
38,-0.10866725022835501,0.06119398765432155
39,-0.10866725022835501,0.06119398765432155
40,-0.10866725022835501,0.06119398765432155
41,-0.07505818361267008,0.10133607821357636
42,-0.07505818361267008,0.10133607821357636
43,-0.07505818361267008,0.10133607821357636
44,-0.07505818361267008,0.10133607821357636
45,-0.07505818361267008,0.10133607821357636
46,-0.07505818361267008,0.10133607821357636
47,-0.07505818361267008,0.10133607821357636
48,-0.07505818361267008,0.10133607821357636
49,-0.13542931477083056,0.05519886620648498
50,-0.13542931477083056,0.05519886620648498
51,-0.13542931477083056,0.05519886620648498
52,-0.13542931477083056,0.05519886620648498
53,-0.1274434202782411,0.06799413365664682
54,-0.1274434202782411,0.06799413365664682
55,-0.1274434202782411,0.06799413365664682
56,-0.1274434202782411,0.06799413365664682
57,-0.1274434202782411,0.06799413365664682
58,-0.1274434202782411,0.06799413365664682
59,-0.1274434202782411,0.06799413365664682
60,-0.1274434202782411,0.06799413365664682
61,-0.1274434202782411,0.06799413365664682
62,-0.1274434202782411,0.06799413365664682
63,-0.1274434202782411,0.06799413365664682
64,-0.1274434202782411,0.06799413365664682
65,-0.1274434202782411,0.06799413365664682
66,-0.1274434202782411,0.06799413365664682
67,-0.1274434202782411,0.06799413365664682
68,-0.1274434202782411,0.06799413365664682
69,-0.1274434202782411,0.06799413365664682
70,-0.1274434202782411,0.06799413365664682
71,-0.1274434202782411,0.06799413365664682
72,-0.1274434202782411,0.06799413365664682
73,-0.1274434202782411,0.06799413365664682
74,-0.1274434202782411,0.06799413365664682
75,-0.1274434202782411,0.06799413365664682
76,-0.08557716076601635,0.11902024616848238
77,-0.08557716076601635,0.11902024616848238
78,-0.08557716076601635,0.11902024616848238
79,-0.08557716076601635,0.11902024616848238
80,-0.08557716076601635,0.11902024616848238
81,-0.08557716076601635,0.11902024616848238
82,-0.08557716076601635,0.11902024616848238
83,-0.08557716076601635,0.11902024616848238
84,-0.08557716076601635,0.11902024616848238
85,-0.08557716076601635,0.11902024616848238
86,-0.08557716076601635,0.11902024616848238
87,-0.08557716076601635,0.11902024616848238
88,-0.08557716076601635,0.11902024616848238
89,-0.08557716076601635,0.11902024616848238
90,-0.08557716076601635,0.11902024616848238
91,-0.08557716076601635,0.11902024616848238
92,-0.08557716076601635,0.11902024616848238
93,-0.08557716076601635,0.11902024616848238
94,-0.08557716076601635,0.11902024616848238
95,-0.08557716076601635,0.11902024616848238
96,-0.08557716076601635,0.11902024616848238
97,-0.08557716076601635,0.11902024616848238
98,-0.08557716076601635,0.11902024616848238
99,-0.08557716076601635,0.11902024616848238
100,-0.08557716076601635,0.11902024616848238
101,-0.08557716076601635,0.11902024616848238
102,-0.08557716076601635,0.11902024616848238
103,-0.08557716076601635,0.11902024616848238
104,-0.08557716076601635,0.11902024616848238
105,-0.08557716076601635,0.11902024616848238
106,-0.09443847216785645,0.11263869120481744
107,-0.09443847216785645,0.11263869120481744
108,-0.09443847216785645,0.11263869120481744
109,-0.09443847216785645,0.11263869120481744
110,-0.09443847216785645,0.11263869120481744
111,-0.09443847216785645,0.11263869120481744
112,-0.09443847216785645,0.11263869120481744
113,-0.09443847216785645,0.11263869120481744
114,-0.09443847216785645,0.11263869120481744
115,-0.09443847216785645,0.11263869120481744
116,-0.09443847216785645,0.11263869120481744
117,-0.09443847216785645,0.11263869120481744
118,-0.09443847216785645,0.11263869120481744
119,-0.09443847216785645,0.11263869120481744
120,-0.09443847216785645,0.11263869120481744
121,-0.09443847216785645,0.11263869120481744
122,-0.09443847216785645,0.11263869120481744
123,-0.09443847216785645,0.11263869120481744
124,-0.09443847216785645,0.11263869120481744
125,-0.09443847216785645,0.11263869120481744
126,-0.09443847216785645,0.11263869120481744
127,-0.09443847216785645,0.11263869120481744
128,-0.09443847216785645,0.11263869120481744
129,-0.09443847216785645,0.11263869120481744
130,-0.09443847216785645,0.11263869120481744
131,-0.09443847216785645,0.11263869120481744
132,-0.09443847216785645,0.11263869120481744
133,-0.09443847216785645,0.11263869120481744
134,-0.09443847216785645,0.11263869120481744
135,-0.09443847216785645,0.11263869120481744
136,-0.09443847216785645,0.11263869120481744
137,-0.09443847216785645,0.11263869120481744
138,-0.09443847216785645,0.11263869120481744
139,-0.09443847216785645,0.11263869120481744
140,-0.09443847216785645,0.11263869120481744
141,-0.09443847216785645,0.11263869120481744
142,-0.09443847216785645,0.11263869120481744
143,-0.09443847216785645,0.11263869120481744
144,-0.09443847216785645,0.11263869120481744
145,-0.09443847216785645,0.11263869120481744
146,-0.09443847216785645,0.11263869120481744
147,-0.09443847216785645,0.11263869120481744
148,-0.09443847216785645,0.11263869120481744
149,-0.09443847216785645,0.11263869120481744
150,-0.09443847216785645,0.11263869120481744
151,-0.09443847216785645,0.11263869120481744
152,-0.09443847216785645,0.11263869120481744
153,-0.09443847216785645,0.11263869120481744
154,-0.09443847216785645,0.11263869120481744
155,-0.09443847216785645,0.11263869120481744
156,-0.09443847216785645,0.11263869120481744
157,-0.09443847216785645,0.11263869120481744
158,-0.09443847216785645,0.11263869120481744
159,-0.09443847216785645,0.11263869120481744
160,-0.09443847216785645,0.11263869120481744
161,-0.09443847216785645,0.11263869120481744
162,-0.09443847216785645,0.11263869120481744
163,-0.09443847216785645,0.11263869120481744
164,-0.09443847216785645,0.11263869120481744
165,-0.09443847216785645,0.11263869120481744
166,-0.09443847216785645,0.11263869120481744
167,-0.09443847216785645,0.11263869120481744
168,-0.09443847216785645,0.11263869120481744
169,-0.09443847216785645,0.11263869120481744
170,-0.09443847216785645,0.11263869120481744
171,-0.09443847216785645,0.11263869120481744
172,-0.09443847216785645,0.11263869120481744
173,-0.09443847216785645,0.11263869120481744
174,-0.09443847216785645,0.11263869120481744
175,-0.09443847216785645,0.11263869120481744
176,-0.09443847216785645,0.11263869120481744
177,-0.09443847216785645,0.11263869120481744
178,-0.09443847216785645,0.11263869120481744
179,-0.09443847216785645,0.11263869120481744
180,-0.09443847216785645,0.11263869120481744
181,-0.09443847216785645,0.11263869120481744
182,-0.09443847216785645,0.11263869120481744
183,-0.09443847216785645,0.11263869120481744
184,-0.09443847216785645,0.11263869120481744
185,-0.09443847216785645,0.11263869120481744
186,-0.09443847216785645,0.11263869120481744
187,-0.09443847216785645,0.11263869120481744
188,-0.09443847216785645,0.11263869120481744
189,-0.09443847216785645,0.11263869120481744
190,-0.09443847216785645,0.11263869120481744
191,-0.09443847216785645,0.11263869120481744
192,-0.09443847216785645,0.11263869120481744
193,-0.09443847216785645,0.11263869120481744
194,-0.09443847216785645,0.11263869120481744
195,-0.09443847216785645,0.11263869120481744
196,-0.09443847216785645,0.11263869120481744
197,-0.09443847216785645,0.11263869120481744
198,-0.09443847216785645,0.11263869120481744
199,-0.09443847216785645,0.11263869120481744
200,-0.09443847216785645,0.11263869120481744
201,-0.09443847216785645,0.11263869120481744
202,-0.09443847216785645,0.11263869120481744
203,-0.09443847216785645,0.11263869120481744
204,-0.09443847216785645,0.11263869120481744
205,-0.09443847216785645,0.11263869120481744
206,-0.09443847216785645,0.11263869120481744
207,-0.09443847216785645,0.11263869120481744
208,-0.09443847216785645,0.11263869120481744
209,-0.09443847216785645,0.11263869120481744
210,-0.09443847216785645,0.11263869120481744
211,-0.09443847216785645,0.11263869120481744
212,-0.09443847216785645,0.11263869120481744
213,-0.09443847216785645,0.11263869120481744
214,-0.09443847216785645,0.11263869120481744
215,-0.09443847216785645,0.11263869120481744
216,-0.09443847216785645,0.11263869120481744
217,-0.09443847216785645,0.11263869120481744
218,-0.09443847216785645,0.11263869120481744
219,-0.11072006540429652,0.09778475060332088
220,-0.11072006540429652,0.09778475060332088
221,-0.11072006540429652,0.09778475060332088
222,-0.11072006540429652,0.09778475060332088
223,-0.11072006540429652,0.09778475060332088
224,-0.11072006540429652,0.09778475060332088
225,-0.11072006540429652,0.09778475060332088
226,-0.11072006540429652,0.09778475060332088
227,-0.11072006540429652,0.09778475060332088
228,-0.11072006540429652,0.09778475060332088
229,-0.11072006540429652,0.09778475060332088
230,-0.11072006540429652,0.09778475060332088
231,-0.11072006540429652,0.09778475060332088
232,-0.11072006540429652,0.09778475060332088
233,-0.11072006540429652,0.09778475060332088
234,-0.11072006540429652,0.09778475060332088
235,-0.11072006540429652,0.09778475060332088
236,-0.11072006540429652,0.09778475060332088
237,-0.11072006540429652,0.09778475060332088
238,-0.11072006540429652,0.09778475060332088
239,-0.11072006540429652,0.09778475060332088
240,-0.11072006540429652,0.09778475060332088
241,-0.11072006540429652,0.09778475060332088
242,-0.11072006540429652,0.09778475060332088
243,-0.11072006540429652,0.09778475060332088
244,-0.11072006540429652,0.09778475060332088
245,-0.11072006540429652,0.09778475060332088
246,-0.11072006540429652,0.09778475060332088
247,-0.11072006540429652,0.09778475060332088
248,-0.11072006540429652,0.09778475060332088
249,-0.11072006540429652,0.09778475060332088
250,-0.11072006540429652,0.09778475060332088
251,-0.11072006540429652,0.09778475060332088
252,-0.11072006540429652,0.09778475060332088
253,-0.11072006540429652,0.09778475060332088
254,-0.11072006540429652,0.09778475060332088
255,-0.11072006540429652,0.09778475060332088
256,-0.11072006540429652,0.09778475060332088
257,-0.11072006540429652,0.09778475060332088
258,-0.11072006540429652,0.09778475060332088
259,-0.11072006540429652,0.09778475060332088
260,-0.11072006540429652,0.09778475060332088
261,-0.11072006540429652,0.09778475060332088
262,-0.11072006540429652,0.09778475060332088
263,-0.11072006540429652,0.09778475060332088
264,-0.11072006540429652,0.09778475060332088
265,-0.11072006540429652,0.09778475060332088
266,-0.11072006540429652,0.09778475060332088
267,-0.11072006540429652,0.09778475060332088
268,-0.11072006540429652,0.09778475060332088
269,-0.11072006540429652,0.09778475060332088
270,-0.11072006540429652,0.09778475060332088
271,-0.11072006540429652,0.09778475060332088
272,-0.11072006540429652,0.09778475060332088
273,-0.11072006540429652,0.09778475060332088
274,-0.11072006540429652,0.09778475060332088
275,-0.11072006540429652,0.09778475060332088
276,-0.11072006540429652,0.09778475060332088
277,-0.11072006540429652,0.09778475060332088
278,-0.11072006540429652,0.09778475060332088
279,-0.11072006540429652,0.09778475060332088
280,-0.11072006540429652,0.09778475060332088
281,-0.11072006540429652,0.09778475060332088
282,-0.11072006540429652,0.09778475060332088
283,-0.11072006540429652,0.09778475060332088
284,-0.11072006540429652,0.09778475060332088
285,-0.11072006540429652,0.09778475060332088
286,-0.11072006540429652,0.09778475060332088
287,-0.11072006540429652,0.09778475060332088
288,-0.11072006540429652,0.09778475060332088
289,-0.11072006540429652,0.09778475060332088
290,-0.11072006540429652,0.09778475060332088
291,-0.11072006540429652,0.09778475060332088
292,-0.11072006540429652,0.09778475060332088
293,-0.11072006540429652,0.09778475060332088
294,-0.11072006540429652,0.09778475060332088
295,-0.11072006540429652,0.09778475060332088
296,-0.11072006540429652,0.09778475060332088
297,-0.11072006540429652,0.09778475060332088
298,-0.11072006540429652,0.09778475060332088
299,-0.11072006540429652,0.09778475060332088
300,-0.11072006540429652,0.09778475060332088
301,-0.09105669824694136,0.11863991313468865
302,-0.09105669824694136,0.11863991313468865
303,-0.09105669824694136,0.11863991313468865
304,-0.09105669824694136,0.11863991313468865
305,-0.09105669824694136,0.11863991313468865
306,-0.09105669824694136,0.11863991313468865
307,-0.09105669824694136,0.11863991313468865
308,-0.09105669824694136,0.11863991313468865
309,-0.09105669824694136,0.11863991313468865
310,-0.1239268640687952,0.08868781311139128
311,-0.1239268640687952,0.08868781311139128
312,-0.1239268640687952,0.08868781311139128
313,-0.1239268640687952,0.08868781311139128
314,-0.1239268640687952,0.08868781311139128
315,-0.1239268640687952,0.08868781311139128
316,-0.1239268640687952,0.08868781311139128
317,-0.1239268640687952,0.08868781311139128
318,-0.1239268640687952,0.08868781311139128
319,-0.1239268640687952,0.08868781311139128
320,-0.1239268640687952,0.08868781311139128
321,-0.1239268640687952,0.08868781311139128
322,-0.1239268640687952,0.08868781311139128
323,-0.1239268640687952,0.08868781311139128
324,-0.1239268640687952,0.08868781311139128
325,-0.1239268640687952,0.08868781311139128
326,-0.1239268640687952,0.08868781311139128
327,-0.1239268640687952,0.08868781311139128
328,-0.1239268640687952,0.08868781311139128
329,-0.1239268640687952,0.08868781311139128
330,-0.1239268640687952,0.08868781311139128
331,-0.1239268640687952,0.08868781311139128
332,-0.1239268640687952,0.08868781311139128
333,-0.1239268640687952,0.08868781311139128
334,-0.1239268640687952,0.08868781311139128
335,-0.1239268640687952,0.08868781311139128
336,-0.1239268640687952,0.08868781311139128
337,-0.1239268640687952,0.08868781311139128
338,-0.1239268640687952,0.08868781311139128
339,-0.1239268640687952,0.08868781311139128
340,-0.1239268640687952,0.08868781311139128
341,-0.1239268640687952,0.08868781311139128
342,-0.1239268640687952,0.08868781311139128
343,-0.1239268640687952,0.08868781311139128
344,-0.1239268640687952,0.08868781311139128
345,-0.06604795259536182,0.15154893273630676
346,-0.06604795259536182,0.15154893273630676
347,-0.06604795259536182,0.15154893273630676
348,-0.06604795259536182,0.15154893273630676
349,-0.06604795259536182,0.15154893273630676
350,-0.06604795259536182,0.15154893273630676
351,-0.06604795259536182,0.15154893273630676
352,-0.06604795259536182,0.15154893273630676
353,-0.06604795259536182,0.15154893273630676
354,-0.06604795259536182,0.15154893273630676
355,-0.06604795259536182,0.15154893273630676
356,-0.06604795259536182,0.15154893273630676
357,-0.06604795259536182,0.15154893273630676
358,-0.06604795259536182,0.15154893273630676
359,-0.06604795259536182,0.15154893273630676
360,-0.06604795259536182,0.15154893273630676
361,-0.169164530560233,0.08812608200431699
362,-0.169164530560233,0.08812608200431699
363,-0.169164530560233,0.08812608200431699
364,-0.169164530560233,0.08812608200431699
365,-0.1527944079592932,0.10619403229114864
366,-0.1527944079592932,0.10619403229114864
367,-0.1527944079592932,0.10619403229114864
368,-0.1527944079592932,0.10619403229114864
369,-0.1527944079592932,0.10619403229114864
370,-0.12886732489109146,0.13806815138533357
371,-0.12886732489109146,0.13806815138533357
372,-0.17381891739309208,0.09602373046370812
373,-0.17381891739309208,0.09602373046370812
374,-0.17381891739309208,0.09602373046370812
375,-0.17381891739309208,0.09602373046370812
376,-0.17381891739309208,0.09602373046370812
377,-0.17381891739309208,0.09602373046370812
378,-0.17381891739309208,0.09602373046370812
379,-0.1267985214544933,0.16830470555418436
380,-0.1267985214544933,0.16830470555418436
381,-0.1267985214544933,0.16830470555418436
382,-0.1267985214544933,0.16830470555418436
383,-0.1267985214544933,0.16830470555418436
384,-0.1267985214544933,0.16830470555418436
385,-0.1267985214544933,0.16830470555418436
386,-0.1267985214544933,0.16830470555418436
387,-0.1267985214544933,0.16830470555418436
388,-0.1267985214544933,0.16830470555418436
389,-0.1267985214544933,0.16830470555418436
390,-0.1267985214544933,0.16830470555418436
391,-0.1267985214544933,0.16830470555418436
392,-0.1267985214544933,0.16830470555418436
393,-0.1267985214544933,0.16830470555418436
394,-0.1267985214544933,0.16830470555418436
395,-0.1267985214544933,0.16830470555418436
396,-0.1267985214544933,0.16830470555418436
397,-0.1267985214544933,0.16830470555418436
398,-0.1267985214544933,0.16830470555418436
399,-0.1267985214544933,0.16830470555418436
400,-0.1267985214544933,0.16830470555418436
401,-0.1267985214544933,0.16830470555418436
402,-0.1267985214544933,0.16830470555418436
403,-0.1267985214544933,0.16830470555418436
404,-0.1267985214544933,0.16830470555418436
405,-0.1267985214544933,0.16830470555418436
406,-0.1267985214544933,0.16830470555418436
407,-0.1267985214544933,0.16830470555418436
408,-0.1267985214544933,0.16830470555418436
409,-0.1267985214544933,0.16830470555418436
410,-0.1267985214544933,0.16830470555418436
411,-0.1267985214544933,0.16830470555418436
412,-0.1267985214544933,0.16830470555418436
413,-0.1267985214544933,0.16830470555418436
414,-0.1267985214544933,0.16830470555418436
415,-0.1267985214544933,0.16830470555418436
416,-0.1267985214544933,0.16830470555418436
417,-0.1267985214544933,0.16830470555418436
418,-0.1267985214544933,0.16830470555418436
419,-0.1267985214544933,0.16830470555418436
420,-0.1267985214544933,0.16830470555418436
421,-0.1267985214544933,0.16830470555418436
422,-0.1267985214544933,0.16830470555418436
423,-0.1267985214544933,0.16830470555418436
424,-0.1267985214544933,0.16830470555418436
425,-0.1267985214544933,0.16830470555418436
426,-0.1267985214544933,0.16830470555418436
427,-0.1267985214544933,0.16830470555418436
428,-0.1267985214544933,0.16830470555418436
429,-0.1267985214544933,0.16830470555418436
430,-0.1267985214544933,0.16830470555418436
431,-0.1267985214544933,0.16830470555418436
432,-0.1267985214544933,0.16830470555418436
433,-0.1267985214544933,0.16830470555418436
434,-0.1267985214544933,0.16830470555418436
435,-0.1267985214544933,0.16830470555418436
436,-0.1267985214544933,0.16830470555418436
437,-0.1267985214544933,0.16830470555418436
438,-0.1267985214544933,0.16830470555418436
439,-0.1267985214544933,0.16830470555418436
440,-0.1267985214544933,0.16830470555418436
441,-0.1267985214544933,0.16830470555418436
442,-0.1267985214544933,0.16830470555418436
443,-0.1267985214544933,0.16830470555418436
444,-0.1267985214544933,0.16830470555418436
445,-0.1267985214544933,0.16830470555418436
446,-0.1267985214544933,0.16830470555418436
447,-0.1267985214544933,0.16830470555418436
448,-0.1267985214544933,0.16830470555418436
449,-0.1267985214544933,0.16830470555418436
450,-0.1267985214544933,0.16830470555418436
451,-0.1267985214544933,0.16830470555418436
452,-0.1267985214544933,0.16830470555418436
453,-0.1267985214544933,0.16830470555418436
454,-0.18671547809031228,0.11934302692480644
455,-0.18671547809031228,0.11934302692480644
456,-0.18671547809031228,0.11934302692480644
457,-0.18671547809031228,0.11934302692480644
458,-0.18671547809031228,0.11934302692480644
459,-0.18671547809031228,0.11934302692480644
460,-0.18671547809031228,0.11934302692480644
461,-0.18671547809031228,0.11934302692480644
462,-0.18671547809031228,0.11934302692480644
463,-0.18671547809031228,0.11934302692480644
464,-0.18671547809031228,0.11934302692480644
465,-0.18671547809031228,0.11934302692480644
466,-0.18671547809031228,0.11934302692480644
467,-0.18671547809031228,0.11934302692480644
468,-0.18671547809031228,0.11934302692480644
469,-0.18671547809031228,0.11934302692480644
470,-0.18671547809031228,0.11934302692480644
471,-0.18671547809031228,0.11934302692480644
472,-0.18671547809031228,0.11934302692480644
473,-0.17561224658875185,0.13590281888452826
474,-0.17561224658875185,0.13590281888452826
475,-0.17561224658875185,0.13590281888452826
476,-0.17561224658875185,0.13590281888452826
477,-0.17561224658875185,0.13590281888452826
478,-0.17561224658875185,0.13590281888452826
479,-0.17561224658875185,0.13590281888452826
480,-0.17561224658875185,0.13590281888452826
481,-0.17561224658875185,0.13590281888452826
482,-0.17561224658875185,0.13590281888452826
483,-0.17561224658875185,0.13590281888452826
484,-0.17561224658875185,0.13590281888452826
485,-0.17561224658875185,0.13590281888452826
486,-0.17561224658875185,0.13590281888452826
487,-0.17561224658875185,0.13590281888452826
488,-0.17561224658875185,0.13590281888452826
489,-0.17561224658875185,0.13590281888452826
490,-0.17561224658875185,0.13590281888452826
491,-0.17561224658875185,0.13590281888452826
492,-0.14676379668716108,0.1650858082733469
493,-0.14676379668716108,0.1650858082733469
494,-0.15872307424213214,0.1541049970210607
495,-0.15872307424213214,0.1541049970210607
496,-0.15872307424213214,0.1541049970210607
497,-0.15872307424213214,0.1541049970210607
498,-0.15872307424213214,0.1541049970210607
499,-0.15872307424213214,0.1541049970210607
500,-0.15872307424213214,0.1541049970210607
501,-0.15872307424213214,0.1541049970210607
502,-0.15872307424213214,0.1541049970210607
503,-0.15872307424213214,0.1541049970210607
504,-0.15872307424213214,0.1541049970210607
505,-0.15872307424213214,0.1541049970210607
506,-0.15872307424213214,0.1541049970210607
507,-0.15872307424213214,0.1541049970210607
508,-0.15872307424213214,0.1541049970210607
509,-0.15872307424213214,0.1541049970210607
510,-0.15872307424213214,0.1541049970210607
511,-0.15872307424213214,0.1541049970210607
512,-0.15872307424213214,0.1541049970210607
513,-0.15872307424213214,0.1541049970210607
514,-0.15872307424213214,0.1541049970210607
515,-0.15872307424213214,0.1541049970210607
516,-0.15872307424213214,0.1541049970210607
517,-0.15872307424213214,0.1541049970210607
518,-0.15872307424213214,0.1541049970210607
519,-0.15872307424213214,0.1541049970210607
520,-0.15872307424213214,0.1541049970210607
521,-0.15872307424213214,0.1541049970210607
522,-0.15872307424213214,0.1541049970210607
523,-0.15872307424213214,0.1541049970210607
524,-0.15872307424213214,0.1541049970210607
525,-0.15872307424213214,0.1541049970210607
526,-0.15872307424213214,0.1541049970210607
527,-0.15872307424213214,0.1541049970210607
528,-0.15872307424213214,0.1541049970210607
529,-0.15872307424213214,0.1541049970210607
530,-0.15872307424213214,0.1541049970210607
531,-0.15872307424213214,0.1541049970210607
532,-0.15872307424213214,0.1541049970210607
533,-0.15872307424213214,0.1541049970210607
534,-0.15872307424213214,0.1541049970210607
535,-0.15872307424213214,0.1541049970210607
536,-0.15872307424213214,0.1541049970210607
537,-0.15872307424213214,0.1541049970210607
538,-0.15872307424213214,0.1541049970210607
539,-0.15872307424213214,0.1541049970210607
540,-0.15872307424213214,0.1541049970210607
541,-0.15872307424213214,0.1541049970210607
542,-0.15872307424213214,0.1541049970210607
543,-0.15872307424213214,0.1541049970210607
544,-0.15872307424213214,0.1541049970210607
545,-0.15872307424213214,0.1541049970210607
546,-0.15872307424213214,0.1541049970210607
547,-0.15872307424213214,0.1541049970210607
548,-0.15872307424213214,0.1541049970210607
549,-0.15872307424213214,0.1541049970210607
550,-0.15872307424213214,0.1541049970210607
551,-0.15872307424213214,0.1541049970210607
552,-0.15872307424213214,0.1541049970210607
553,-0.15872307424213214,0.1541049970210607
554,-0.15872307424213214,0.1541049970210607
555,-0.15872307424213214,0.1541049970210607
556,-0.15872307424213214,0.1541049970210607
557,-0.15872307424213214,0.1541049970210607
558,-0.15872307424213214,0.1541049970210607
559,-0.15872307424213214,0.1541049970210607
560,-0.15872307424213214,0.1541049970210607
561,-0.15872307424213214,0.1541049970210607
562,-0.15872307424213214,0.1541049970210607
563,-0.15872307424213214,0.1541049970210607
564,-0.15872307424213214,0.1541049970210607
565,-0.15872307424213214,0.1541049970210607
566,-0.15872307424213214,0.1541049970210607
567,-0.15872307424213214,0.1541049970210607
568,-0.15872307424213214,0.1541049970210607
569,-0.15872307424213214,0.1541049970210607
570,-0.15872307424213214,0.1541049970210607
571,-0.15872307424213214,0.1541049970210607
572,-0.15872307424213214,0.1541049970210607
573,-0.15872307424213214,0.1541049970210607
574,-0.15872307424213214,0.1541049970210607
575,-0.15872307424213214,0.1541049970210607
576,-0.15872307424213214,0.1541049970210607
577,-0.15872307424213214,0.1541049970210607
578,-0.15872307424213214,0.1541049970210607
579,-0.15872307424213214,0.1541049970210607
580,-0.15872307424213214,0.1541049970210607
581,-0.15872307424213214,0.1541049970210607
582,-0.15872307424213214,0.1541049970210607
583,-0.15872307424213214,0.1541049970210607
584,-0.15872307424213214,0.1541049970210607
585,-0.15872307424213214,0.1541049970210607
586,-0.15872307424213214,0.1541049970210607
587,-0.15872307424213214,0.1541049970210607
588,-0.15872307424213214,0.1541049970210607
589,-0.15872307424213214,0.1541049970210607
590,-0.15872307424213214,0.1541049970210607
591,-0.15872307424213214,0.1541049970210607
592,-0.15872307424213214,0.1541049970210607
593,-0.15872307424213214,0.1541049970210607
594,-0.15872307424213214,0.1541049970210607
595,-0.15872307424213214,0.1541049970210607
596,-0.15872307424213214,0.1541049970210607
597,-0.15872307424213214,0.1541049970210607
598,-0.15872307424213214,0.1541049970210607
599,-0.15872307424213214,0.1541049970210607
600,-0.15872307424213214,0.1541049970210607
601,-0.15872307424213214,0.1541049970210607
602,-0.15872307424213214,0.1541049970210607
603,-0.15872307424213214,0.1541049970210607
604,-0.15872307424213214,0.1541049970210607
605,-0.15872307424213214,0.1541049970210607
606,-0.15872307424213214,0.1541049970210607
607,-0.15872307424213214,0.1541049970210607
608,-0.15872307424213214,0.1541049970210607
609,-0.15872307424213214,0.1541049970210607
610,-0.15872307424213214,0.1541049970210607
611,-0.15872307424213214,0.1541049970210607
612,-0.15872307424213214,0.1541049970210607
613,-0.15872307424213214,0.1541049970210607
614,-0.15872307424213214,0.1541049970210607
615,-0.15872307424213214,0.1541049970210607
616,-0.15872307424213214,0.1541049970210607
617,-0.15872307424213214,0.1541049970210607
618,-0.15872307424213214,0.1541049970210607
619,-0.15872307424213214,0.1541049970210607
620,-0.15872307424213214,0.1541049970210607
621,-0.15872307424213214,0.1541049970210607
622,-0.15872307424213214,0.1541049970210607
623,-0.15872307424213214,0.1541049970210607
624,-0.15872307424213214,0.1541049970210607
625,-0.15872307424213214,0.1541049970210607
626,-0.15872307424213214,0.1541049970210607
627,-0.15872307424213214,0.1541049970210607
628,-0.15872307424213214,0.1541049970210607
629,-0.15872307424213214,0.1541049970210607
630,-0.15872307424213214,0.1541049970210607
631,-0.15872307424213214,0.1541049970210607
632,-0.15872307424213214,0.1541049970210607
633,-0.15872307424213214,0.1541049970210607
634,-0.15872307424213214,0.1541049970210607
635,-0.15872307424213214,0.1541049970210607
636,-0.15872307424213214,0.1541049970210607
637,-0.15872307424213214,0.1541049970210607
638,-0.15872307424213214,0.1541049970210607
639,-0.15872307424213214,0.1541049970210607
640,-0.15872307424213214,0.1541049970210607
641,-0.15872307424213214,0.1541049970210607
642,-0.15872307424213214,0.1541049970210607
643,-0.15872307424213214,0.1541049970210607
644,-0.15872307424213214,0.1541049970210607
645,-0.15872307424213214,0.1541049970210607
646,-0.15872307424213214,0.1541049970210607
647,-0.15872307424213214,0.1541049970210607
648,-0.15872307424213214,0.1541049970210607
649,-0.15872307424213214,0.1541049970210607
650,-0.15872307424213214,0.1541049970210607
651,-0.15872307424213214,0.1541049970210607
652,-0.15872307424213214,0.1541049970210607
653,-0.15872307424213214,0.1541049970210607
654,-0.15872307424213214,0.1541049970210607
655,-0.15872307424213214,0.1541049970210607
656,-0.15872307424213214,0.1541049970210607
657,-0.15872307424213214,0.1541049970210607
658,-0.15872307424213214,0.1541049970210607
659,-0.15872307424213214,0.1541049970210607
660,-0.15872307424213214,0.1541049970210607
661,-0.15872307424213214,0.1541049970210607
662,-0.15872307424213214,0.1541049970210607
663,-0.15872307424213214,0.1541049970210607
664,-0.15872307424213214,0.1541049970210607
665,-0.15872307424213214,0.1541049970210607
666,-0.15872307424213214,0.1541049970210607
667,-0.15872307424213214,0.1541049970210607
668,-0.15872307424213214,0.1541049970210607
669,-0.15872307424213214,0.1541049970210607
670,-0.15872307424213214,0.1541049970210607
671,-0.15872307424213214,0.1541049970210607
672,-0.15872307424213214,0.1541049970210607
673,-0.15872307424213214,0.1541049970210607
674,-0.15872307424213214,0.1541049970210607
675,-0.15872307424213214,0.1541049970210607
676,-0.15872307424213214,0.1541049970210607
677,-0.15872307424213214,0.1541049970210607
678,-0.15872307424213214,0.1541049970210607
679,-0.15872307424213214,0.1541049970210607
680,-0.15872307424213214,0.1541049970210607
681,-0.15872307424213214,0.1541049970210607
682,-0.15872307424213214,0.1541049970210607
683,-0.15872307424213214,0.1541049970210607
684,-0.15872307424213214,0.1541049970210607
685,-0.15872307424213214,0.1541049970210607
686,-0.15872307424213214,0.1541049970210607
687,-0.15872307424213214,0.1541049970210607
688,-0.15872307424213214,0.1541049970210607
689,-0.15872307424213214,0.1541049970210607
690,-0.15872307424213214,0.1541049970210607
691,-0.15872307424213214,0.1541049970210607
692,-0.15872307424213214,0.1541049970210607
693,-0.15872307424213214,0.1541049970210607
694,-0.15872307424213214,0.1541049970210607
695,-0.15872307424213214,0.1541049970210607
696,-0.15872307424213214,0.1541049970210607
697,-0.15872307424213214,0.1541049970210607
698,-0.15872307424213214,0.1541049970210607
699,-0.15872307424213214,0.1541049970210607
700,-0.15872307424213214,0.1541049970210607
701,-0.15872307424213214,0.1541049970210607
702,-0.15872307424213214,0.1541049970210607
703,-0.15872307424213214,0.1541049970210607
704,-0.15872307424213214,0.1541049970210607
705,-0.15872307424213214,0.1541049970210607
706,-0.15872307424213214,0.1541049970210607
707,-0.15872307424213214,0.1541049970210607
708,-0.15872307424213214,0.1541049970210607
709,-0.15872307424213214,0.1541049970210607
710,-0.15872307424213214,0.1541049970210607
711,-0.15872307424213214,0.1541049970210607
712,-0.15872307424213214,0.1541049970210607
713,-0.15872307424213214,0.1541049970210607
714,-0.15872307424213214,0.1541049970210607
715,-0.15872307424213214,0.1541049970210607
716,-0.15872307424213214,0.1541049970210607
717,-0.15872307424213214,0.1541049970210607
718,-0.15872307424213214,0.1541049970210607
719,-0.15872307424213214,0.1541049970210607
720,-0.15872307424213214,0.1541049970210607
721,-0.15872307424213214,0.1541049970210607
722,-0.15872307424213214,0.1541049970210607
723,-0.15872307424213214,0.1541049970210607
724,-0.15872307424213214,0.1541049970210607
725,-0.15872307424213214,0.1541049970210607
726,-0.15872307424213214,0.1541049970210607
727,-0.15872307424213214,0.1541049970210607
728,-0.15872307424213214,0.1541049970210607
729,-0.15872307424213214,0.1541049970210607
730,-0.15872307424213214,0.1541049970210607
731,-0.15872307424213214,0.1541049970210607
732,-0.15872307424213214,0.1541049970210607
733,-0.15872307424213214,0.1541049970210607
734,-0.15872307424213214,0.1541049970210607
735,-0.15872307424213214,0.1541049970210607
736,-0.15872307424213214,0.1541049970210607
737,-0.15872307424213214,0.1541049970210607
738,-0.15872307424213214,0.1541049970210607
739,-0.15872307424213214,0.1541049970210607
740,-0.15872307424213214,0.1541049970210607
741,-0.15872307424213214,0.1541049970210607
742,-0.15872307424213214,0.1541049970210607
743,-0.15872307424213214,0.1541049970210607
744,-0.15872307424213214,0.1541049970210607
745,-0.15872307424213214,0.1541049970210607
746,-0.15872307424213214,0.1541049970210607
747,-0.15872307424213214,0.1541049970210607
748,-0.15872307424213214,0.1541049970210607
749,-0.15872307424213214,0.1541049970210607
750,-0.15872307424213214,0.1541049970210607
751,-0.15872307424213214,0.1541049970210607
752,-0.15872307424213214,0.1541049970210607
753,-0.15872307424213214,0.1541049970210607
754,-0.15872307424213214,0.1541049970210607
755,-0.15872307424213214,0.1541049970210607
756,-0.15872307424213214,0.1541049970210607
757,-0.15872307424213214,0.1541049970210607
758,-0.15872307424213214,0.1541049970210607
759,-0.15872307424213214,0.1541049970210607
760,-0.15872307424213214,0.1541049970210607
761,-0.15872307424213214,0.1541049970210607
762,-0.15872307424213214,0.1541049970210607
763,-0.15872307424213214,0.1541049970210607
764,-0.15872307424213214,0.1541049970210607
765,-0.15872307424213214,0.1541049970210607
766,-0.15872307424213214,0.1541049970210607
767,-0.15872307424213214,0.1541049970210607
768,-0.15872307424213214,0.1541049970210607
769,-0.15872307424213214,0.1541049970210607
770,-0.15872307424213214,0.1541049970210607
771,-0.15872307424213214,0.1541049970210607
772,-0.15872307424213214,0.1541049970210607
773,-0.15872307424213214,0.1541049970210607
774,-0.15872307424213214,0.1541049970210607
775,-0.15872307424213214,0.1541049970210607
776,-0.15872307424213214,0.1541049970210607
777,-0.15872307424213214,0.1541049970210607
778,-0.15872307424213214,0.1541049970210607
779,-0.15872307424213214,0.1541049970210607
780,-0.15872307424213214,0.1541049970210607
781,-0.15872307424213214,0.1541049970210607
782,-0.15872307424213214,0.1541049970210607
783,-0.15872307424213214,0.1541049970210607
784,-0.15872307424213214,0.1541049970210607
785,-0.15872307424213214,0.1541049970210607
786,-0.15872307424213214,0.1541049970210607
787,-0.15872307424213214,0.1541049970210607
788,-0.15872307424213214,0.1541049970210607
789,-0.15872307424213214,0.1541049970210607
790,-0.15872307424213214,0.1541049970210607
791,-0.15872307424213214,0.1541049970210607
792,-0.15872307424213214,0.1541049970210607
793,-0.15872307424213214,0.1541049970210607
794,-0.15872307424213214,0.1541049970210607
795,-0.15872307424213214,0.1541049970210607
796,-0.15872307424213214,0.1541049970210607
797,-0.15872307424213214,0.1541049970210607
798,-0.15872307424213214,0.1541049970210607
799,-0.15872307424213214,0.1541049970210607
800,-0.15872307424213214,0.1541049970210607
801,-0.15872307424213214,0.1541049970210607
802,-0.15872307424213214,0.1541049970210607
803,-0.15872307424213214,0.1541049970210607
804,-0.15872307424213214,0.1541049970210607
805,-0.15872307424213214,0.1541049970210607
806,-0.15872307424213214,0.1541049970210607
807,-0.15872307424213214,0.1541049970210607
808,-0.15872307424213214,0.1541049970210607
809,-0.15872307424213214,0.1541049970210607
810,-0.15872307424213214,0.1541049970210607
811,-0.15872307424213214,0.1541049970210607
812,-0.15872307424213214,0.1541049970210607
813,-0.15872307424213214,0.1541049970210607
814,-0.15872307424213214,0.1541049970210607
815,-0.15872307424213214,0.1541049970210607
816,-0.15872307424213214,0.1541049970210607
817,-0.15872307424213214,0.1541049970210607
818,-0.15872307424213214,0.1541049970210607
819,-0.15872307424213214,0.1541049970210607
820,-0.15872307424213214,0.1541049970210607
821,-0.15872307424213214,0.1541049970210607
822,-0.15872307424213214,0.1541049970210607
823,-0.15872307424213214,0.1541049970210607
824,-0.15872307424213214,0.1541049970210607
825,-0.15872307424213214,0.1541049970210607
826,-0.15872307424213214,0.1541049970210607
827,-0.15872307424213214,0.1541049970210607
828,-0.15872307424213214,0.1541049970210607
829,-0.15872307424213214,0.1541049970210607
830,-0.15872307424213214,0.1541049970210607
831,-0.15872307424213214,0.1541049970210607
832,-0.15872307424213214,0.1541049970210607
833,-0.15872307424213214,0.1541049970210607
834,-0.15872307424213214,0.1541049970210607
835,-0.15872307424213214,0.1541049970210607
836,-0.15872307424213214,0.1541049970210607
837,-0.15872307424213214,0.1541049970210607
838,-0.15872307424213214,0.1541049970210607
839,-0.15872307424213214,0.1541049970210607
840,-0.15872307424213214,0.1541049970210607
841,-0.15872307424213214,0.1541049970210607
842,-0.15872307424213214,0.1541049970210607
843,-0.15872307424213214,0.1541049970210607
844,-0.15872307424213214,0.1541049970210607
845,-0.15872307424213214,0.1541049970210607
846,-0.15872307424213214,0.1541049970210607
847,-0.15872307424213214,0.1541049970210607
848,-0.15872307424213214,0.1541049970210607
849,-0.15872307424213214,0.1541049970210607
850,-0.15872307424213214,0.1541049970210607
851,-0.15872307424213214,0.1541049970210607
852,-0.15872307424213214,0.1541049970210607
853,-0.15872307424213214,0.1541049970210607
854,-0.15872307424213214,0.1541049970210607
855,-0.15872307424213214,0.1541049970210607
856,-0.15872307424213214,0.1541049970210607
857,-0.15872307424213214,0.1541049970210607
858,-0.15872307424213214,0.1541049970210607
859,-0.15872307424213214,0.1541049970210607
860,-0.15872307424213214,0.1541049970210607
861,-0.15872307424213214,0.1541049970210607
862,-0.15872307424213214,0.1541049970210607
863,-0.15872307424213214,0.1541049970210607
864,-0.15872307424213214,0.1541049970210607
865,-0.15872307424213214,0.1541049970210607
866,-0.15872307424213214,0.1541049970210607
867,-0.15872307424213214,0.1541049970210607
868,-0.15872307424213214,0.1541049970210607
869,-0.15872307424213214,0.1541049970210607
870,-0.15872307424213214,0.1541049970210607
871,-0.15872307424213214,0.1541049970210607
872,-0.15872307424213214,0.1541049970210607
873,-0.15872307424213214,0.1541049970210607
874,-0.15872307424213214,0.1541049970210607
875,-0.15872307424213214,0.1541049970210607
876,-0.15872307424213214,0.1541049970210607
877,-0.15872307424213214,0.1541049970210607
878,-0.15872307424213214,0.1541049970210607
879,-0.15872307424213214,0.1541049970210607
880,-0.15872307424213214,0.1541049970210607
881,-0.15872307424213214,0.1541049970210607
882,-0.15872307424213214,0.1541049970210607
883,-0.15872307424213214,0.1541049970210607
884,-0.15872307424213214,0.1541049970210607
885,-0.15872307424213214,0.1541049970210607
886,-0.15872307424213214,0.1541049970210607
887,-0.15872307424213214,0.1541049970210607
888,-0.15872307424213214,0.1541049970210607
889,-0.15872307424213214,0.1541049970210607
890,-0.15872307424213214,0.1541049970210607
891,-0.15872307424213214,0.1541049970210607
892,-0.15872307424213214,0.1541049970210607
893,-0.15872307424213214,0.1541049970210607
894,-0.15872307424213214,0.1541049970210607
895,-0.15872307424213214,0.1541049970210607
896,-0.15872307424213214,0.1541049970210607
897,-0.15872307424213214,0.1541049970210607
898,-0.15872307424213214,0.1541049970210607
899,-0.15872307424213214,0.1541049970210607
900,-0.15872307424213214,0.1541049970210607
901,-0.15872307424213214,0.1541049970210607
902,-0.15872307424213214,0.1541049970210607
903,-0.15872307424213214,0.1541049970210607
904,-0.15872307424213214,0.1541049970210607
905,-0.15872307424213214,0.1541049970210607
906,-0.15872307424213214,0.1541049970210607
907,-0.15872307424213214,0.1541049970210607
908,-0.15872307424213214,0.1541049970210607
909,-0.15872307424213214,0.1541049970210607
910,-0.15872307424213214,0.1541049970210607
911,-0.15872307424213214,0.1541049970210607
912,-0.15872307424213214,0.1541049970210607
913,-0.15872307424213214,0.1541049970210607
914,-0.15872307424213214,0.1541049970210607
915,-0.15872307424213214,0.1541049970210607
916,-0.15872307424213214,0.1541049970210607
917,-0.15872307424213214,0.1541049970210607
918,-0.15872307424213214,0.1541049970210607
919,-0.15872307424213214,0.1541049970210607
920,-0.15872307424213214,0.1541049970210607
921,-0.15872307424213214,0.1541049970210607
922,-0.15872307424213214,0.1541049970210607
923,-0.15872307424213214,0.1541049970210607
924,-0.15872307424213214,0.1541049970210607
925,-0.15872307424213214,0.1541049970210607
926,-0.15872307424213214,0.1541049970210607
927,-0.15872307424213214,0.1541049970210607
928,-0.15872307424213214,0.1541049970210607
929,-0.15872307424213214,0.1541049970210607
930,-0.15872307424213214,0.1541049970210607
931,-0.15872307424213214,0.1541049970210607
932,-0.15872307424213214,0.1541049970210607
933,-0.15872307424213214,0.1541049970210607
934,-0.15872307424213214,0.1541049970210607
935,-0.15872307424213214,0.1541049970210607
936,-0.15872307424213214,0.1541049970210607
937,-0.15872307424213214,0.1541049970210607
938,-0.15872307424213214,0.1541049970210607
939,-0.15872307424213214,0.1541049970210607
940,-0.15872307424213214,0.1541049970210607
941,-0.15872307424213214,0.1541049970210607
942,-0.15872307424213214,0.1541049970210607
943,-0.15872307424213214,0.1541049970210607
944,-0.15872307424213214,0.1541049970210607
945,-0.15872307424213214,0.1541049970210607
946,-0.15872307424213214,0.1541049970210607
947,-0.15872307424213214,0.1541049970210607
948,-0.15872307424213214,0.1541049970210607
949,-0.15872307424213214,0.1541049970210607
950,-0.15872307424213214,0.1541049970210607
951,-0.15872307424213214,0.1541049970210607
952,-0.15872307424213214,0.1541049970210607
953,-0.15872307424213214,0.1541049970210607
954,-0.15872307424213214,0.1541049970210607
955,-0.15872307424213214,0.1541049970210607
956,-0.15872307424213214,0.1541049970210607
957,-0.15872307424213214,0.1541049970210607
958,-0.15872307424213214,0.1541049970210607
959,-0.15872307424213214,0.1541049970210607
960,-0.15872307424213214,0.1541049970210607
961,-0.15872307424213214,0.1541049970210607
962,-0.15872307424213214,0.1541049970210607
963,-0.15872307424213214,0.1541049970210607
964,-0.15872307424213214,0.1541049970210607
965,-0.15872307424213214,0.1541049970210607
966,-0.15872307424213214,0.1541049970210607
967,-0.15872307424213214,0.1541049970210607
968,-0.15872307424213214,0.1541049970210607
969,-0.15872307424213214,0.1541049970210607
970,-0.15872307424213214,0.1541049970210607
971,-0.15872307424213214,0.1541049970210607
972,-0.15872307424213214,0.1541049970210607
973,-0.15872307424213214,0.1541049970210607
974,-0.15872307424213214,0.1541049970210607
975,-0.15872307424213214,0.1541049970210607
976,-0.15872307424213214,0.1541049970210607
977,-0.15872307424213214,0.1541049970210607
978,-0.15872307424213214,0.1541049970210607
979,-0.15872307424213214,0.1541049970210607
980,-0.15872307424213214,0.1541049970210607
981,-0.15872307424213214,0.1541049970210607
982,-0.15872307424213214,0.1541049970210607
983,-0.15872307424213214,0.1541049970210607
984,-0.15872307424213214,0.1541049970210607
985,-0.15872307424213214,0.1541049970210607
986,-0.15872307424213214,0.1541049970210607
987,-0.15872307424213214,0.1541049970210607
988,-0.15872307424213214,0.1541049970210607
989,-0.15872307424213214,0.1541049970210607
990,-0.15872307424213214,0.1541049970210607
991,-0.15872307424213214,0.1541049970210607
992,-0.15872307424213214,0.1541049970210607
993,-0.15872307424213214,0.1541049970210607
994,-0.15872307424213214,0.1541049970210607
995,-0.15872307424213214,0.1541049970210607
996,-0.15872307424213214,0.1541049970210607
997,-0.15872307424213214,0.1541049970210607
998,-0.15872307424213214,0.1541049970210607
999,-0.15872307424213214,0.1541049970210607
1000,-0.15872307424213214,0.1541049970210607
