iteration,mean_w1,mean_w2
0,0.0,0.0
1,-0.005099186012685108,0.008624453164880301
2,-0.005099186012685108,0.008624453164880301
3,-0.005099186012685108,0.008624453164880301
4,-0.005099186012685108,0.008624453164880301
5,-0.005099186012685108,0.008624453164880301
6,-0.005099186012685108,0.008624453164880301
7,-0.049243229972887353,-0.029645183481774907
8,-0.049243229972887353,-0.029645183481774907
9,-0.049243229972887353,-0.029645183481774907
10,-0.049243229972887353,-0.029645183481774907
11,-0.049243229972887353,-0.029645183481774907
12,-0.04126971576373895,-0.019987818560566476
13,-0.04126971576373895,-0.019987818560566476
14,-0.04126971576373895,-0.019987818560566476
15,-0.04126971576373895,-0.019987818560566476
16,-0.041002540284460036,0.0011578237387254268
17,-0.041002540284460036,0.0011578237387254268
18,-0.037009654014731774,0.007555359765110572
19,-0.037009654014731774,0.007555359765110572
20,-0.037009654014731774,0.007555359765110572
21,-0.030974421923942175,0.014776072387229236
22,-0.030974421923942175,0.014776072387229236
23,-0.030974421923942175,0.014776072387229236
24,-0.030974421923942175,0.014776072387229236
25,-0.030974421923942175,0.014776072387229236
26,-0.030974421923942175,0.014776072387229236
27,-0.030974421923942175,0.014776072387229236
28,-0.030974421923942175,0.014776072387229236
29,-0.030974421923942175,0.014776072387229236
30,-0.030974421923942175,0.014776072387229236
31,-0.030974421923942175,0.014776072387229236
32,-0.030974421923942175,0.014776072387229236
33,-0.030974421923942175,0.014776072387229236
34,-0.030974421923942175,0.014776072387229236
35,-0.016211211506376774,0.04473833854266686
36,-0.016211211506376774,0.04473833854266686
37,-0.016211211506376774,0.04473833854266686
38,-0.016211211506376774,0.04473833854266686
39,-0.016211211506376774,0.04473833854266686
40,-0.016211211506376774,0.04473833854266686
41,-0.016211211506376774,0.04473833854266686
42,-0.016211211506376774,0.04473833854266686
43,-0.016211211506376774,0.04473833854266686
44,-0.016211211506376774,0.04473833854266686
45,-0.016211211506376774,0.04473833854266686
46,-0.016211211506376774,0.04473833854266686
47,-0.016211211506376774,0.04473833854266686
48,-0.016211211506376774,0.04473833854266686
49,-0.016211211506376774,0.04473833854266686
50,-0.016211211506376774,0.04473833854266686
51,-0.016211211506376774,0.04473833854266686
52,-0.016211211506376774,0.04473833854266686
53,-0.016211211506376774,0.04473833854266686
54,-0.016211211506376774,0.04473833854266686
55,-0.020781088889473387,0.040698647730905264
56,-0.020781088889473387,0.040698647730905264
57,-0.020781088889473387,0.040698647730905264
58,-0.020781088889473387,0.040698647730905264
59,-0.020781088889473387,0.040698647730905264
60,-0.020781088889473387,0.040698647730905264
61,-0.020781088889473387,0.040698647730905264
62,-0.020781088889473387,0.040698647730905264
63,-0.020781088889473387,0.040698647730905264
64,-0.020781088889473387,0.040698647730905264
65,-0.020781088889473387,0.040698647730905264
66,-0.020781088889473387,0.040698647730905264
67,-0.034189353898875424,0.032180514015007794
68,-0.034189353898875424,0.032180514015007794
69,-0.034189353898875424,0.032180514015007794
70,-0.034189353898875424,0.032180514015007794
71,-0.034189353898875424,0.032180514015007794
72,-0.034189353898875424,0.032180514015007794
73,-0.034189353898875424,0.032180514015007794
74,-0.034189353898875424,0.032180514015007794
75,-0.034189353898875424,0.032180514015007794
76,-0.034189353898875424,0.032180514015007794
77,-0.034189353898875424,0.032180514015007794
78,-0.034189353898875424,0.032180514015007794
79,-0.034189353898875424,0.032180514015007794
80,-0.034189353898875424,0.032180514015007794
81,-0.034189353898875424,0.032180514015007794
82,-0.034189353898875424,0.032180514015007794
83,-0.034189353898875424,0.032180514015007794
84,-0.034189353898875424,0.032180514015007794
85,-0.034189353898875424,0.032180514015007794
86,-0.034189353898875424,0.032180514015007794
87,-0.034189353898875424,0.032180514015007794
88,-0.034189353898875424,0.032180514015007794
89,-0.034189353898875424,0.032180514015007794
90,-0.034189353898875424,0.032180514015007794
91,-0.034189353898875424,0.032180514015007794
92,-0.034189353898875424,0.032180514015007794
93,-0.034189353898875424,0.032180514015007794
94,-0.034189353898875424,0.032180514015007794
95,-0.034189353898875424,0.032180514015007794
96,-0.034189353898875424,0.032180514015007794
97,-0.034189353898875424,0.032180514015007794
98,-0.034189353898875424,0.032180514015007794
99,-0.034189353898875424,0.032180514015007794
100,-0.034189353898875424,0.032180514015007794
101,-0.034189353898875424,0.032180514015007794
102,-0.034189353898875424,0.032180514015007794
103,-0.034189353898875424,0.032180514015007794
104,-0.034189353898875424,0.032180514015007794
105,-0.034189353898875424,0.032180514015007794
106,-0.034189353898875424,0.032180514015007794
107,-0.034189353898875424,0.032180514015007794
108,-0.034189353898875424,0.032180514015007794
109,-0.034189353898875424,0.032180514015007794
110,-0.034189353898875424,0.032180514015007794
111,-0.034189353898875424,0.032180514015007794
112,-0.034189353898875424,0.032180514015007794
113,-0.034189353898875424,0.032180514015007794
114,-0.034189353898875424,0.032180514015007794
115,-0.034189353898875424,0.032180514015007794
116,-0.034189353898875424,0.032180514015007794
117,-0.034189353898875424,0.032180514015007794
118,-0.034189353898875424,0.032180514015007794
119,-0.034189353898875424,0.032180514015007794
120,-0.034189353898875424,0.032180514015007794
121,-0.034189353898875424,0.032180514015007794
122,-0.034189353898875424,0.032180514015007794
123,-0.034189353898875424,0.032180514015007794
124,-0.034189353898875424,0.032180514015007794
125,-0.034189353898875424,0.032180514015007794
126,-0.034189353898875424,0.032180514015007794
127,-0.034189353898875424,0.032180514015007794
128,-0.034189353898875424,0.032180514015007794
129,-0.034189353898875424,0.032180514015007794
130,-0.034189353898875424,0.032180514015007794
131,-0.034189353898875424,0.032180514015007794
132,-0.034189353898875424,0.032180514015007794
133,-0.034189353898875424,0.032180514015007794
134,-0.034189353898875424,0.032180514015007794
135,-0.034189353898875424,0.032180514015007794
136,-0.034189353898875424,0.032180514015007794
137,-0.034189353898875424,0.032180514015007794
138,-0.034189353898875424,0.032180514015007794
139,-0.034189353898875424,0.032180514015007794
140,-0.034189353898875424,0.032180514015007794
141,-0.034189353898875424,0.032180514015007794
142,-0.034189353898875424,0.032180514015007794
143,-0.034189353898875424,0.032180514015007794
144,-0.034189353898875424,0.032180514015007794
145,-0.034189353898875424,0.032180514015007794
146,-0.034189353898875424,0.032180514015007794
147,-0.034189353898875424,0.032180514015007794
148,-0.034189353898875424,0.032180514015007794
149,-0.034189353898875424,0.032180514015007794
150,-0.034189353898875424,0.032180514015007794
151,-0.034189353898875424,0.032180514015007794
152,-0.034189353898875424,0.032180514015007794
153,-0.034189353898875424,0.032180514015007794
154,-0.034189353898875424,0.032180514015007794
155,-0.034189353898875424,0.032180514015007794
156,-0.034189353898875424,0.032180514015007794
157,-0.034189353898875424,0.032180514015007794
158,-0.034189353898875424,0.032180514015007794
159,-0.034189353898875424,0.032180514015007794
160,-0.034189353898875424,0.032180514015007794
161,-0.034189353898875424,0.032180514015007794
162,-0.034189353898875424,0.032180514015007794
163,-0.034189353898875424,0.032180514015007794
164,-0.034189353898875424,0.032180514015007794
165,-0.034189353898875424,0.032180514015007794
166,-0.034189353898875424,0.032180514015007794
167,-0.034189353898875424,0.032180514015007794
168,-0.034189353898875424,0.032180514015007794
169,-0.034189353898875424,0.032180514015007794
170,-0.034189353898875424,0.032180514015007794
171,-0.034189353898875424,0.032180514015007794
172,-0.034189353898875424,0.032180514015007794
173,-0.034189353898875424,0.032180514015007794
174,-0.034189353898875424,0.032180514015007794
175,-0.034189353898875424,0.032180514015007794
176,-0.034189353898875424,0.032180514015007794
177,-0.034189353898875424,0.032180514015007794
178,-0.034189353898875424,0.032180514015007794
179,-0.034189353898875424,0.032180514015007794
180,-0.034189353898875424,0.032180514015007794
181,-0.034189353898875424,0.032180514015007794
182,-0.034189353898875424,0.032180514015007794
183,-0.034189353898875424,0.032180514015007794
184,-0.034189353898875424,0.032180514015007794
185,-0.034189353898875424,0.032180514015007794
186,-0.034189353898875424,0.032180514015007794
187,-0.034189353898875424,0.032180514015007794
188,-0.034189353898875424,0.032180514015007794
189,-0.034189353898875424,0.032180514015007794
190,-0.034189353898875424,0.032180514015007794
191,-0.034189353898875424,0.032180514015007794
192,-0.034189353898875424,0.032180514015007794
193,-0.034189353898875424,0.032180514015007794
194,-0.034189353898875424,0.032180514015007794
195,-0.034189353898875424,0.032180514015007794
196,-0.034189353898875424,0.032180514015007794
197,-0.034189353898875424,0.032180514015007794
198,-0.034189353898875424,0.032180514015007794
199,-0.034189353898875424,0.032180514015007794
200,-0.034189353898875424,0.032180514015007794
201,-0.034189353898875424,0.032180514015007794
202,-0.034189353898875424,0.032180514015007794
203,-0.034189353898875424,0.032180514015007794
204,-0.034189353898875424,0.032180514015007794
205,-0.034189353898875424,0.032180514015007794
206,-0.034189353898875424,0.032180514015007794
207,-0.019502737139062087,0.04759503457957424
208,-0.019502737139062087,0.04759503457957424
209,-0.019502737139062087,0.04759503457957424
210,-0.019502737139062087,0.04759503457957424
211,-0.019502737139062087,0.04759503457957424
212,-0.019502737139062087,0.04759503457957424
213,-0.019502737139062087,0.04759503457957424
214,-0.019502737139062087,0.04759503457957424
215,-0.019502737139062087,0.04759503457957424
216,-0.019502737139062087,0.04759503457957424
217,-0.019502737139062087,0.04759503457957424
218,-0.019502737139062087,0.04759503457957424
219,-0.019502737139062087,0.04759503457957424
220,-0.019502737139062087,0.04759503457957424
221,-0.019502737139062087,0.04759503457957424
222,-0.019502737139062087,0.04759503457957424
223,-0.04294564560927129,0.032294587715684726
224,-0.04294564560927129,0.032294587715684726
225,-0.04294564560927129,0.032294587715684726
226,-0.04294564560927129,0.032294587715684726
227,-0.04294564560927129,0.032294587715684726
228,-0.04294564560927129,0.032294587715684726
229,-0.04294564560927129,0.032294587715684726
230,-0.04294564560927129,0.032294587715684726
231,-0.04294564560927129,0.032294587715684726
232,-0.04294564560927129,0.032294587715684726
233,-0.04294564560927129,0.032294587715684726
234,-0.04294564560927129,0.032294587715684726
235,-0.04294564560927129,0.032294587715684726
236,-0.04294564560927129,0.032294587715684726
237,-0.04294564560927129,0.032294587715684726
238,-0.04294564560927129,0.032294587715684726
239,-0.04294564560927129,0.032294587715684726
240,-0.04294564560927129,0.032294587715684726
241,-0.04294564560927129,0.032294587715684726
242,-0.04294564560927129,0.032294587715684726
243,-0.04294564560927129,0.032294587715684726
244,-0.04294564560927129,0.032294587715684726
245,-0.04294564560927129,0.032294587715684726
246,-0.010521705352707774,0.06615129933184605
247,-0.029274924975473782,0.04779238742453753
248,-0.029274924975473782,0.04779238742453753
249,-0.029274924975473782,0.04779238742453753
250,-0.029274924975473782,0.04779238742453753
251,-0.029274924975473782,0.04779238742453753
252,-0.029274924975473782,0.04779238742453753
253,-0.029274924975473782,0.04779238742453753
254,-0.029274924975473782,0.04779238742453753
255,-0.029274924975473782,0.04779238742453753
256,-0.029274924975473782,0.04779238742453753
257,-0.029274924975473782,0.04779238742453753
258,-0.029274924975473782,0.04779238742453753
259,-0.029274924975473782,0.04779238742453753
260,-0.029274924975473782,0.04779238742453753
261,-0.029274924975473782,0.04779238742453753
262,-0.029274924975473782,0.04779238742453753
263,-0.029274924975473782,0.04779238742453753
264,-0.029274924975473782,0.04779238742453753
265,-0.029274924975473782,0.04779238742453753
266,-0.03502771411551095,0.043430374576742675
267,-0.03502771411551095,0.043430374576742675
268,-0.03502771411551095,0.043430374576742675
269,-0.03502771411551095,0.043430374576742675
270,-0.03502771411551095,0.043430374576742675
271,-0.03502771411551095,0.043430374576742675
272,-0.03502771411551095,0.043430374576742675
273,-0.03502771411551095,0.043430374576742675
274,-0.03502771411551095,0.043430374576742675
275,-0.03502771411551095,0.043430374576742675
276,-0.03502771411551095,0.043430374576742675
277,-0.03502771411551095,0.043430374576742675
278,-0.03502771411551095,0.043430374576742675
279,-0.03502771411551095,0.043430374576742675
280,-0.03502771411551095,0.043430374576742675
281,-0.03502771411551095,0.043430374576742675
282,-0.03502771411551095,0.043430374576742675
283,-0.03502771411551095,0.043430374576742675
284,-0.03502771411551095,0.043430374576742675
285,-0.0653186580968374,0.018302693089651764
286,-0.04283235568994604,0.04888689548287304
287,-0.04283235568994604,0.04888689548287304
288,-0.04283235568994604,0.04888689548287304
289,-0.04283235568994604,0.04888689548287304
290,-0.04283235568994604,0.04888689548287304
291,-0.04283235568994604,0.04888689548287304
292,-0.04283235568994604,0.04888689548287304
293,-0.04283235568994604,0.04888689548287304
294,-0.04283235568994604,0.04888689548287304
295,-0.04283235568994604,0.04888689548287304
296,-0.04283235568994604,0.04888689548287304
297,-0.04283235568994604,0.04888689548287304
298,-0.04283235568994604,0.04888689548287304
299,-0.04283235568994604,0.04888689548287304
300,-0.04283235568994604,0.04888689548287304
301,-0.04283235568994604,0.04888689548287304
302,-0.04283235568994604,0.04888689548287304
303,-0.04283235568994604,0.04888689548287304
304,-0.04283235568994604,0.04888689548287304
305,-0.04283235568994604,0.04888689548287304
306,-0.04283235568994604,0.04888689548287304
307,-0.04283235568994604,0.04888689548287304
308,-0.04283235568994604,0.04888689548287304
309,-0.04283235568994604,0.04888689548287304
310,-0.04283235568994604,0.04888689548287304
311,-0.04283235568994604,0.04888689548287304
312,-0.04283235568994604,0.04888689548287304
313,-0.04283235568994604,0.04888689548287304
314,-0.04283235568994604,0.04888689548287304
315,-0.04283235568994604,0.04888689548287304
316,-0.04283235568994604,0.04888689548287304
317,-0.04283235568994604,0.04888689548287304
318,-0.056342908302648986,0.036736099411587037
319,-0.04259629929300249,0.056815255352776074
320,-0.04259629929300249,0.056815255352776074
321,-0.04259629929300249,0.056815255352776074
322,-0.04259629929300249,0.056815255352776074
323,-0.04259629929300249,0.056815255352776074
324,-0.04259629929300249,0.056815255352776074
325,-0.04259629929300249,0.056815255352776074
326,-0.04259629929300249,0.056815255352776074
327,-0.04259629929300249,0.056815255352776074
328,-0.054361579575041376,0.04613123679024353
329,-0.054361579575041376,0.04613123679024353
330,-0.054361579575041376,0.04613123679024353
331,-0.054361579575041376,0.04613123679024353
332,-0.054361579575041376,0.04613123679024353
333,-0.054361579575041376,0.04613123679024353
334,-0.054361579575041376,0.04613123679024353
335,-0.03614376612757542,0.06545538305406541
336,-0.03614376612757542,0.06545538305406541
337,-0.03614376612757542,0.06545538305406541
338,-0.03614376612757542,0.06545538305406541
339,-0.03614376612757542,0.06545538305406541
340,-0.03614376612757542,0.06545538305406541
341,-0.03614376612757542,0.06545538305406541
342,-0.03614376612757542,0.06545538305406541
343,-0.08694231279711045,0.01852046298959903
344,-0.08694231279711045,0.01852046298959903
345,-0.08694231279711045,0.01852046298959903
346,-0.08694231279711045,0.01852046298959903
347,-0.08694231279711045,0.01852046298959903
348,-0.08694231279711045,0.01852046298959903
349,-0.08694231279711045,0.01852046298959903
350,-0.08694231279711045,0.01852046298959903
351,-0.08694231279711045,0.01852046298959903
352,-0.08694231279711045,0.01852046298959903
353,-0.08694231279711045,0.01852046298959903
354,-0.0724115319506579,0.04582035115910598
355,-0.05457159446517604,0.0672630845744578
356,-0.05457159446517604,0.0672630845744578
357,-0.05457159446517604,0.0672630845744578
358,-0.05457159446517604,0.0672630845744578
359,-0.05457159446517604,0.0672630845744578
360,-0.05457159446517604,0.0672630845744578
361,-0.05457159446517604,0.0672630845744578
362,-0.05457159446517604,0.0672630845744578
363,-0.05457159446517604,0.0672630845744578
364,-0.05457159446517604,0.0672630845744578
365,-0.05457159446517604,0.0672630845744578
366,-0.05457159446517604,0.0672630845744578
367,-0.05457159446517604,0.0672630845744578
368,-0.05457159446517604,0.0672630845744578
369,-0.05457159446517604,0.0672630845744578
370,-0.05457159446517604,0.0672630845744578
371,-0.05457159446517604,0.0672630845744578
372,-0.05457159446517604,0.0672630845744578
373,-0.05457159446517604,0.0672630845744578
374,-0.05457159446517604,0.0672630845744578
375,-0.05457159446517604,0.0672630845744578
376,-0.05457159446517604,0.0672630845744578
377,-0.05457159446517604,0.0672630845744578
378,-0.05457159446517604,0.0672630845744578
379,-0.05457159446517604,0.0672630845744578
380,-0.05457159446517604,0.0672630845744578
381,-0.05457159446517604,0.0672630845744578
382,-0.05457159446517604,0.0672630845744578
383,-0.05457159446517604,0.0672630845744578
384,-0.05457159446517604,0.0672630845744578
385,-0.05457159446517604,0.0672630845744578
386,-0.05457159446517604,0.0672630845744578
387,-0.05457159446517604,0.0672630845744578
388,-0.06693734188911388,0.05708729136707789
389,-0.06693734188911388,0.05708729136707789
390,-0.06693734188911388,0.05708729136707789
391,-0.06693734188911388,0.05708729136707789
392,-0.06693734188911388,0.05708729136707789
393,-0.06693734188911388,0.05708729136707789
394,-0.06693734188911388,0.05708729136707789
395,-0.06693734188911388,0.05708729136707789
396,-0.06693734188911388,0.05708729136707789
397,-0.06693734188911388,0.05708729136707789
398,-0.06693734188911388,0.05708729136707789
399,-0.06693734188911388,0.05708729136707789
400,-0.06693734188911388,0.05708729136707789
401,-0.06693734188911388,0.05708729136707789
402,-0.06693734188911388,0.05708729136707789
403,-0.06693734188911388,0.05708729136707789
404,-0.06693734188911388,0.05708729136707789
405,-0.06693734188911388,0.05708729136707789
406,-0.06693734188911388,0.05708729136707789
407,-0.06693734188911388,0.05708729136707789
408,-0.06693734188911388,0.05708729136707789
409,-0.06693734188911388,0.05708729136707789
410,-0.06693734188911388,0.05708729136707789
411,-0.06693734188911388,0.05708729136707789
412,-0.06693734188911388,0.05708729136707789
413,-0.06693734188911388,0.05708729136707789
414,-0.06693734188911388,0.05708729136707789
415,-0.06693734188911388,0.05708729136707789
416,-0.06693734188911388,0.05708729136707789
417,-0.06693734188911388,0.05708729136707789
418,-0.06693734188911388,0.05708729136707789
419,-0.06693734188911388,0.05708729136707789
420,-0.06693734188911388,0.05708729136707789
421,-0.06693734188911388,0.05708729136707789
422,-0.06693734188911388,0.05708729136707789
423,-0.06693734188911388,0.05708729136707789
424,-0.06693734188911388,0.05708729136707789
425,-0.06693734188911388,0.05708729136707789
426,-0.06693734188911388,0.05708729136707789
427,-0.06693734188911388,0.05708729136707789
428,-0.06693734188911388,0.05708729136707789
429,-0.06693734188911388,0.05708729136707789
430,-0.06693734188911388,0.05708729136707789
431,-0.06693734188911388,0.05708729136707789
432,-0.06693734188911388,0.05708729136707789
433,-0.06693734188911388,0.05708729136707789
434,-0.06693734188911388,0.05708729136707789
435,-0.06693734188911388,0.05708729136707789
436,-0.06693734188911388,0.05708729136707789
437,-0.06693734188911388,0.05708729136707789
438,-0.06693734188911388,0.05708729136707789
439,-0.06693734188911388,0.05708729136707789
440,-0.06693734188911388,0.05708729136707789
441,-0.06693734188911388,0.05708729136707789
442,-0.06693734188911388,0.05708729136707789
443,-0.06693734188911388,0.05708729136707789
444,-0.06693734188911388,0.05708729136707789
445,-0.06693734188911388,0.05708729136707789
446,-0.06693734188911388,0.05708729136707789
447,-0.06693734188911388,0.05708729136707789
448,-0.06693734188911388,0.05708729136707789
449,-0.06693734188911388,0.05708729136707789
450,-0.06693734188911388,0.05708729136707789
451,-0.06693734188911388,0.05708729136707789
452,-0.06693734188911388,0.05708729136707789
453,-0.06693734188911388,0.05708729136707789
454,-0.06693734188911388,0.05708729136707789
455,-0.06693734188911388,0.05708729136707789
456,-0.06693734188911388,0.05708729136707789
457,-0.06693734188911388,0.05708729136707789
458,-0.06693734188911388,0.05708729136707789
459,-0.05658980323390005,0.06825172271754411
460,-0.05658980323390005,0.06825172271754411
461,-0.05658980323390005,0.06825172271754411
462,-0.05658980323390005,0.06825172271754411
463,-0.05658980323390005,0.06825172271754411
464,-0.05658980323390005,0.06825172271754411
465,-0.05658980323390005,0.06825172271754411
466,-0.05658980323390005,0.06825172271754411
467,-0.05658980323390005,0.06825172271754411
468,-0.05658980323390005,0.06825172271754411
469,-0.05658980323390005,0.06825172271754411
470,-0.05658980323390005,0.06825172271754411
471,-0.05658980323390005,0.06825172271754411
472,-0.05658980323390005,0.06825172271754411
473,-0.05658980323390005,0.06825172271754411
474,-0.05658980323390005,0.06825172271754411
475,-0.05658980323390005,0.06825172271754411
476,-0.05658980323390005,0.06825172271754411
477,-0.05658980323390005,0.06825172271754411
478,-0.05658980323390005,0.06825172271754411
479,-0.08682434861344167,0.04103941124762314
480,-0.08682434861344167,0.04103941124762314
481,-0.08682434861344167,0.04103941124762314
482,-0.08682434861344167,0.04103941124762314
483,-0.08682434861344167,0.04103941124762314
484,-0.0796239863409754,0.049890689641566885
485,-0.0796239863409754,0.049890689641566885
486,-0.0796239863409754,0.049890689641566885
487,-0.0796239863409754,0.049890689641566885
488,-0.0796239863409754,0.049890689641566885
489,-0.0796239863409754,0.049890689641566885
490,-0.0796239863409754,0.049890689641566885
491,-0.0796239863409754,0.049890689641566885
492,-0.0796239863409754,0.049890689641566885
493,-0.0796239863409754,0.049890689641566885
494,-0.06581394078291038,0.06588218160884839
495,-0.06581394078291038,0.06588218160884839
496,-0.06581394078291038,0.06588218160884839
497,-0.06581394078291038,0.06588218160884839
498,-0.06581394078291038,0.06588218160884839
499,-0.06581394078291038,0.06588218160884839
500,-0.06581394078291038,0.06588218160884839
501,-0.06581394078291038,0.06588218160884839
502,-0.06581394078291038,0.06588218160884839
503,-0.06581394078291038,0.06588218160884839
504,-0.06581394078291038,0.06588218160884839
505,-0.06581394078291038,0.06588218160884839
506,-0.06581394078291038,0.06588218160884839
507,-0.06581394078291038,0.06588218160884839
508,-0.06581394078291038,0.06588218160884839
509,-0.06581394078291038,0.06588218160884839
510,-0.06581394078291038,0.06588218160884839
511,-0.06581394078291038,0.06588218160884839
512,-0.06581394078291038,0.06588218160884839
513,-0.06581394078291038,0.06588218160884839
514,-0.06581394078291038,0.06588218160884839
515,-0.06581394078291038,0.06588218160884839
516,-0.06581394078291038,0.06588218160884839
517,-0.06581394078291038,0.06588218160884839
518,-0.06581394078291038,0.06588218160884839
519,-0.06581394078291038,0.06588218160884839
520,-0.06581394078291038,0.06588218160884839
521,-0.06581394078291038,0.06588218160884839
522,-0.06581394078291038,0.06588218160884839
523,-0.06581394078291038,0.06588218160884839
524,-0.06581394078291038,0.06588218160884839
525,-0.06581394078291038,0.06588218160884839
526,-0.06581394078291038,0.06588218160884839
527,-0.06581394078291038,0.06588218160884839
528,-0.06581394078291038,0.06588218160884839
529,-0.06581394078291038,0.06588218160884839
530,-0.06581394078291038,0.06588218160884839
531,-0.06581394078291038,0.06588218160884839
532,-0.06581394078291038,0.06588218160884839
533,-0.06581394078291038,0.06588218160884839
534,-0.06581394078291038,0.06588218160884839
535,-0.06581394078291038,0.06588218160884839
536,-0.06581394078291038,0.06588218160884839
537,-0.06581394078291038,0.06588218160884839
538,-0.06581394078291038,0.06588218160884839
539,-0.06581394078291038,0.06588218160884839
540,-0.06581394078291038,0.06588218160884839
541,-0.06581394078291038,0.06588218160884839
542,-0.06581394078291038,0.06588218160884839
543,-0.06581394078291038,0.06588218160884839
544,-0.06581394078291038,0.06588218160884839
545,-0.06581394078291038,0.06588218160884839
546,-0.06581394078291038,0.06588218160884839
547,-0.06581394078291038,0.06588218160884839
548,-0.06581394078291038,0.06588218160884839
549,-0.06581394078291038,0.06588218160884839
550,-0.06581394078291038,0.06588218160884839
551,-0.06581394078291038,0.06588218160884839
552,-0.06581394078291038,0.06588218160884839
553,-0.06581394078291038,0.06588218160884839
554,-0.06581394078291038,0.06588218160884839
555,-0.06581394078291038,0.06588218160884839
556,-0.06581394078291038,0.06588218160884839
557,-0.06581394078291038,0.06588218160884839
558,-0.06581394078291038,0.06588218160884839
559,-0.06581394078291038,0.06588218160884839
560,-0.06581394078291038,0.06588218160884839
561,-0.06581394078291038,0.06588218160884839
562,-0.06581394078291038,0.06588218160884839
563,-0.06581394078291038,0.06588218160884839
564,-0.06581394078291038,0.06588218160884839
565,-0.06581394078291038,0.06588218160884839
566,-0.06581394078291038,0.06588218160884839
567,-0.06581394078291038,0.06588218160884839
568,-0.06581394078291038,0.06588218160884839
569,-0.06581394078291038,0.06588218160884839
570,-0.06581394078291038,0.06588218160884839
571,-0.06581394078291038,0.06588218160884839
572,-0.06581394078291038,0.06588218160884839
573,-0.06581394078291038,0.06588218160884839
574,-0.06581394078291038,0.06588218160884839
575,-0.06581394078291038,0.06588218160884839
576,-0.06581394078291038,0.06588218160884839
577,-0.06581394078291038,0.06588218160884839
578,-0.06581394078291038,0.06588218160884839
579,-0.06581394078291038,0.06588218160884839
580,-0.06581394078291038,0.06588218160884839
581,-0.06581394078291038,0.06588218160884839
582,-0.06581394078291038,0.06588218160884839
583,-0.06581394078291038,0.06588218160884839
584,-0.06581394078291038,0.06588218160884839
585,-0.06581394078291038,0.06588218160884839
586,-0.06581394078291038,0.06588218160884839
587,-0.06581394078291038,0.06588218160884839
588,-0.06581394078291038,0.06588218160884839
589,-0.06581394078291038,0.06588218160884839
590,-0.06581394078291038,0.06588218160884839
591,-0.06581394078291038,0.06588218160884839
592,-0.06581394078291038,0.06588218160884839
593,-0.06581394078291038,0.06588218160884839
594,-0.06581394078291038,0.06588218160884839
595,-0.06581394078291038,0.06588218160884839
596,-0.06581394078291038,0.06588218160884839
597,-0.06581394078291038,0.06588218160884839
598,-0.06581394078291038,0.06588218160884839
599,-0.06581394078291038,0.06588218160884839
600,-0.06581394078291038,0.06588218160884839
601,-0.06581394078291038,0.06588218160884839
602,-0.06581394078291038,0.06588218160884839
603,-0.06581394078291038,0.06588218160884839
604,-0.06581394078291038,0.06588218160884839
605,-0.06581394078291038,0.06588218160884839
606,-0.06581394078291038,0.06588218160884839
607,-0.06581394078291038,0.06588218160884839
608,-0.06581394078291038,0.06588218160884839
609,-0.06581394078291038,0.06588218160884839
610,-0.06581394078291038,0.06588218160884839
611,-0.06581394078291038,0.06588218160884839
612,-0.06581394078291038,0.06588218160884839
613,-0.06581394078291038,0.06588218160884839
614,-0.06581394078291038,0.06588218160884839
615,-0.06581394078291038,0.06588218160884839
616,-0.06581394078291038,0.06588218160884839
617,-0.06581394078291038,0.06588218160884839
618,-0.06581394078291038,0.06588218160884839
619,-0.06581394078291038,0.06588218160884839
620,-0.06581394078291038,0.06588218160884839
621,-0.06581394078291038,0.06588218160884839
622,-0.06581394078291038,0.06588218160884839
623,-0.06581394078291038,0.06588218160884839
624,-0.06581394078291038,0.06588218160884839
625,-0.06581394078291038,0.06588218160884839
626,-0.06581394078291038,0.06588218160884839
627,-0.06581394078291038,0.06588218160884839
628,-0.06581394078291038,0.06588218160884839
629,-0.06581394078291038,0.06588218160884839
630,-0.06581394078291038,0.06588218160884839
631,-0.06581394078291038,0.06588218160884839
632,-0.06581394078291038,0.06588218160884839
633,-0.06581394078291038,0.06588218160884839
634,-0.06581394078291038,0.06588218160884839
635,-0.06581394078291038,0.06588218160884839
636,-0.06581394078291038,0.06588218160884839
637,-0.06581394078291038,0.06588218160884839
638,-0.06581394078291038,0.06588218160884839
639,-0.06581394078291038,0.06588218160884839
640,-0.06581394078291038,0.06588218160884839
641,-0.06581394078291038,0.06588218160884839
642,-0.06581394078291038,0.06588218160884839
643,-0.06581394078291038,0.06588218160884839
644,-0.06581394078291038,0.06588218160884839
645,-0.06581394078291038,0.06588218160884839
646,-0.06581394078291038,0.06588218160884839
647,-0.06581394078291038,0.06588218160884839
648,-0.06581394078291038,0.06588218160884839
649,-0.06581394078291038,0.06588218160884839
650,-0.06581394078291038,0.06588218160884839
651,-0.06581394078291038,0.06588218160884839
652,-0.06581394078291038,0.06588218160884839
653,-0.06581394078291038,0.06588218160884839
654,-0.06581394078291038,0.06588218160884839
655,-0.06581394078291038,0.06588218160884839
656,-0.06581394078291038,0.06588218160884839
657,-0.06581394078291038,0.06588218160884839
658,-0.06581394078291038,0.06588218160884839
659,-0.06581394078291038,0.06588218160884839
660,-0.06581394078291038,0.06588218160884839
661,-0.06581394078291038,0.06588218160884839
662,-0.06581394078291038,0.06588218160884839
663,-0.06581394078291038,0.06588218160884839
664,-0.06581394078291038,0.06588218160884839
665,-0.06581394078291038,0.06588218160884839
666,-0.06581394078291038,0.06588218160884839
667,-0.06581394078291038,0.06588218160884839
668,-0.06581394078291038,0.06588218160884839
669,-0.06581394078291038,0.06588218160884839
670,-0.06581394078291038,0.06588218160884839
671,-0.06581394078291038,0.06588218160884839
672,-0.06581394078291038,0.06588218160884839
673,-0.06581394078291038,0.06588218160884839
674,-0.06581394078291038,0.06588218160884839
675,-0.06581394078291038,0.06588218160884839
676,-0.06581394078291038,0.06588218160884839
677,-0.06581394078291038,0.06588218160884839
678,-0.06581394078291038,0.06588218160884839
679,-0.06581394078291038,0.06588218160884839
680,-0.06581394078291038,0.06588218160884839
681,-0.06581394078291038,0.06588218160884839
682,-0.06581394078291038,0.06588218160884839
683,-0.06581394078291038,0.06588218160884839
684,-0.06581394078291038,0.06588218160884839
685,-0.06581394078291038,0.06588218160884839
686,-0.06581394078291038,0.06588218160884839
687,-0.06581394078291038,0.06588218160884839
688,-0.06581394078291038,0.06588218160884839
689,-0.06581394078291038,0.06588218160884839
690,-0.06581394078291038,0.06588218160884839
691,-0.06581394078291038,0.06588218160884839
692,-0.06581394078291038,0.06588218160884839
693,-0.06581394078291038,0.06588218160884839
694,-0.06581394078291038,0.06588218160884839
695,-0.06581394078291038,0.06588218160884839
696,-0.06581394078291038,0.06588218160884839
697,-0.06581394078291038,0.06588218160884839
698,-0.06581394078291038,0.06588218160884839
699,-0.06581394078291038,0.06588218160884839
700,-0.06581394078291038,0.06588218160884839
701,-0.06581394078291038,0.06588218160884839
702,-0.06581394078291038,0.06588218160884839
703,-0.06581394078291038,0.06588218160884839
704,-0.06581394078291038,0.06588218160884839
705,-0.06581394078291038,0.06588218160884839
706,-0.06581394078291038,0.06588218160884839
707,-0.06581394078291038,0.06588218160884839
708,-0.06581394078291038,0.06588218160884839
709,-0.06581394078291038,0.06588218160884839
710,-0.06581394078291038,0.06588218160884839
711,-0.06581394078291038,0.06588218160884839
712,-0.06581394078291038,0.06588218160884839
713,-0.06581394078291038,0.06588218160884839
714,-0.06581394078291038,0.06588218160884839
715,-0.06581394078291038,0.06588218160884839
716,-0.06581394078291038,0.06588218160884839
717,-0.06581394078291038,0.06588218160884839
718,-0.06581394078291038,0.06588218160884839
719,-0.06581394078291038,0.06588218160884839
720,-0.06581394078291038,0.06588218160884839
721,-0.06581394078291038,0.06588218160884839
722,-0.06581394078291038,0.06588218160884839
723,-0.06581394078291038,0.06588218160884839
724,-0.06581394078291038,0.06588218160884839
725,-0.06581394078291038,0.06588218160884839
726,-0.06581394078291038,0.06588218160884839
727,-0.06581394078291038,0.06588218160884839
728,-0.06581394078291038,0.06588218160884839
729,-0.06581394078291038,0.06588218160884839
730,-0.06581394078291038,0.06588218160884839
731,-0.06581394078291038,0.06588218160884839
732,-0.06581394078291038,0.06588218160884839
733,-0.06581394078291038,0.06588218160884839
734,-0.06581394078291038,0.06588218160884839
735,-0.06581394078291038,0.06588218160884839
736,-0.06581394078291038,0.06588218160884839
737,-0.06581394078291038,0.06588218160884839
738,-0.06581394078291038,0.06588218160884839
739,-0.06581394078291038,0.06588218160884839
740,-0.06581394078291038,0.06588218160884839
741,-0.06581394078291038,0.06588218160884839
742,-0.06581394078291038,0.06588218160884839
743,-0.06581394078291038,0.06588218160884839
744,-0.06581394078291038,0.06588218160884839
745,-0.06581394078291038,0.06588218160884839
746,-0.06581394078291038,0.06588218160884839
747,-0.06581394078291038,0.06588218160884839
748,-0.06581394078291038,0.06588218160884839
749,-0.06581394078291038,0.06588218160884839
750,-0.06581394078291038,0.06588218160884839
751,-0.06581394078291038,0.06588218160884839
752,-0.06581394078291038,0.06588218160884839
753,-0.06581394078291038,0.06588218160884839
754,-0.06581394078291038,0.06588218160884839
755,-0.06581394078291038,0.06588218160884839
756,-0.06581394078291038,0.06588218160884839
757,-0.06581394078291038,0.06588218160884839
758,-0.06581394078291038,0.06588218160884839
759,-0.06581394078291038,0.06588218160884839
760,-0.06581394078291038,0.06588218160884839
761,-0.06581394078291038,0.06588218160884839
762,-0.06581394078291038,0.06588218160884839
763,-0.06581394078291038,0.06588218160884839
764,-0.06581394078291038,0.06588218160884839
765,-0.06581394078291038,0.06588218160884839
766,-0.06581394078291038,0.06588218160884839
767,-0.06581394078291038,0.06588218160884839
768,-0.06581394078291038,0.06588218160884839
769,-0.06581394078291038,0.06588218160884839
770,-0.06581394078291038,0.06588218160884839
771,-0.06581394078291038,0.06588218160884839
772,-0.06581394078291038,0.06588218160884839
773,-0.06581394078291038,0.06588218160884839
774,-0.06581394078291038,0.06588218160884839
775,-0.06581394078291038,0.06588218160884839
776,-0.06581394078291038,0.06588218160884839
777,-0.06581394078291038,0.06588218160884839
778,-0.06581394078291038,0.06588218160884839
779,-0.06581394078291038,0.06588218160884839
780,-0.06581394078291038,0.06588218160884839
781,-0.06581394078291038,0.06588218160884839
782,-0.06581394078291038,0.06588218160884839
783,-0.06581394078291038,0.06588218160884839
784,-0.06581394078291038,0.06588218160884839
785,-0.06581394078291038,0.06588218160884839
786,-0.06581394078291038,0.06588218160884839
787,-0.06581394078291038,0.06588218160884839
788,-0.06581394078291038,0.06588218160884839
789,-0.06581394078291038,0.06588218160884839
790,-0.06581394078291038,0.06588218160884839
791,-0.06581394078291038,0.06588218160884839
792,-0.06581394078291038,0.06588218160884839
793,-0.06581394078291038,0.06588218160884839
794,-0.06581394078291038,0.06588218160884839
795,-0.06581394078291038,0.06588218160884839
796,-0.06581394078291038,0.06588218160884839
797,-0.06581394078291038,0.06588218160884839
798,-0.06581394078291038,0.06588218160884839
799,-0.06581394078291038,0.06588218160884839
800,-0.06581394078291038,0.06588218160884839
801,-0.06581394078291038,0.06588218160884839
802,-0.06581394078291038,0.06588218160884839
803,-0.06581394078291038,0.06588218160884839
804,-0.06581394078291038,0.06588218160884839
805,-0.06581394078291038,0.06588218160884839
806,-0.06581394078291038,0.06588218160884839
807,-0.06581394078291038,0.06588218160884839
808,-0.06581394078291038,0.06588218160884839
809,-0.06581394078291038,0.06588218160884839
810,-0.06581394078291038,0.06588218160884839
811,-0.06581394078291038,0.06588218160884839
812,-0.06581394078291038,0.06588218160884839
813,-0.06581394078291038,0.06588218160884839
814,-0.06581394078291038,0.06588218160884839
815,-0.06581394078291038,0.06588218160884839
816,-0.06581394078291038,0.06588218160884839
817,-0.06581394078291038,0.06588218160884839
818,-0.06581394078291038,0.06588218160884839
819,-0.06581394078291038,0.06588218160884839
820,-0.06581394078291038,0.06588218160884839
821,-0.06581394078291038,0.06588218160884839
822,-0.06581394078291038,0.06588218160884839
823,-0.06581394078291038,0.06588218160884839
824,-0.06581394078291038,0.06588218160884839
825,-0.06581394078291038,0.06588218160884839
826,-0.06581394078291038,0.06588218160884839
827,-0.06581394078291038,0.06588218160884839
828,-0.06581394078291038,0.06588218160884839
829,-0.06581394078291038,0.06588218160884839
830,-0.06581394078291038,0.06588218160884839
831,-0.06581394078291038,0.06588218160884839
832,-0.06581394078291038,0.06588218160884839
833,-0.06581394078291038,0.06588218160884839
834,-0.06581394078291038,0.06588218160884839
835,-0.06581394078291038,0.06588218160884839
836,-0.06581394078291038,0.06588218160884839
837,-0.06581394078291038,0.06588218160884839
838,-0.06581394078291038,0.06588218160884839
839,-0.06581394078291038,0.06588218160884839
840,-0.06581394078291038,0.06588218160884839
841,-0.06581394078291038,0.06588218160884839
842,-0.06581394078291038,0.06588218160884839
843,-0.06581394078291038,0.06588218160884839
844,-0.06581394078291038,0.06588218160884839
845,-0.06581394078291038,0.06588218160884839
846,-0.06581394078291038,0.06588218160884839
847,-0.06581394078291038,0.06588218160884839
848,-0.06581394078291038,0.06588218160884839
849,-0.06581394078291038,0.06588218160884839
850,-0.06581394078291038,0.06588218160884839
851,-0.06581394078291038,0.06588218160884839
852,-0.06581394078291038,0.06588218160884839
853,-0.06581394078291038,0.06588218160884839
854,-0.06581394078291038,0.06588218160884839
855,-0.06581394078291038,0.06588218160884839
856,-0.06581394078291038,0.06588218160884839
857,-0.06581394078291038,0.06588218160884839
858,-0.06581394078291038,0.06588218160884839
859,-0.06581394078291038,0.06588218160884839
860,-0.06581394078291038,0.06588218160884839
861,-0.06581394078291038,0.06588218160884839
862,-0.06581394078291038,0.06588218160884839
863,-0.06581394078291038,0.06588218160884839
864,-0.06581394078291038,0.06588218160884839
865,-0.06581394078291038,0.06588218160884839
866,-0.06581394078291038,0.06588218160884839
867,-0.06581394078291038,0.06588218160884839
868,-0.06581394078291038,0.06588218160884839
869,-0.06581394078291038,0.06588218160884839
870,-0.06581394078291038,0.06588218160884839
871,-0.06581394078291038,0.06588218160884839
872,-0.06581394078291038,0.06588218160884839
873,-0.06581394078291038,0.06588218160884839
874,-0.06581394078291038,0.06588218160884839
875,-0.06581394078291038,0.06588218160884839
876,-0.06581394078291038,0.06588218160884839
877,-0.06581394078291038,0.06588218160884839
878,-0.06581394078291038,0.06588218160884839
879,-0.06581394078291038,0.06588218160884839
880,-0.06581394078291038,0.06588218160884839
881,-0.06581394078291038,0.06588218160884839
882,-0.06581394078291038,0.06588218160884839
883,-0.06581394078291038,0.06588218160884839
884,-0.06581394078291038,0.06588218160884839
885,-0.06581394078291038,0.06588218160884839
886,-0.06581394078291038,0.06588218160884839
887,-0.06581394078291038,0.06588218160884839
888,-0.06581394078291038,0.06588218160884839
889,-0.06581394078291038,0.06588218160884839
890,-0.06581394078291038,0.06588218160884839
891,-0.06581394078291038,0.06588218160884839
892,-0.06581394078291038,0.06588218160884839
893,-0.06581394078291038,0.06588218160884839
894,-0.06581394078291038,0.06588218160884839
895,-0.06581394078291038,0.06588218160884839
896,-0.06581394078291038,0.06588218160884839
897,-0.06581394078291038,0.06588218160884839
898,-0.06581394078291038,0.06588218160884839
899,-0.06581394078291038,0.06588218160884839
900,-0.06581394078291038,0.06588218160884839
901,-0.06581394078291038,0.06588218160884839
902,-0.06581394078291038,0.06588218160884839
903,-0.06581394078291038,0.06588218160884839
904,-0.06581394078291038,0.06588218160884839
905,-0.06581394078291038,0.06588218160884839
906,-0.06581394078291038,0.06588218160884839
907,-0.06581394078291038,0.06588218160884839
908,-0.06581394078291038,0.06588218160884839
909,-0.06581394078291038,0.06588218160884839
910,-0.06581394078291038,0.06588218160884839
911,-0.06581394078291038,0.06588218160884839
912,-0.06581394078291038,0.06588218160884839
913,-0.06581394078291038,0.06588218160884839
914,-0.06581394078291038,0.06588218160884839
915,-0.06581394078291038,0.06588218160884839
916,-0.06581394078291038,0.06588218160884839
917,-0.06581394078291038,0.06588218160884839
918,-0.06581394078291038,0.06588218160884839
919,-0.06581394078291038,0.06588218160884839
920,-0.06581394078291038,0.06588218160884839
921,-0.06581394078291038,0.06588218160884839
922,-0.06581394078291038,0.06588218160884839
923,-0.06581394078291038,0.06588218160884839
924,-0.06581394078291038,0.06588218160884839
925,-0.06581394078291038,0.06588218160884839
926,-0.06581394078291038,0.06588218160884839
927,-0.06581394078291038,0.06588218160884839
928,-0.06581394078291038,0.06588218160884839
929,-0.06581394078291038,0.06588218160884839
930,-0.06581394078291038,0.06588218160884839
931,-0.06581394078291038,0.06588218160884839
932,-0.06581394078291038,0.06588218160884839
933,-0.06581394078291038,0.06588218160884839
934,-0.06581394078291038,0.06588218160884839
935,-0.06581394078291038,0.06588218160884839
936,-0.06581394078291038,0.06588218160884839
937,-0.06581394078291038,0.06588218160884839
938,-0.06581394078291038,0.06588218160884839
939,-0.06581394078291038,0.06588218160884839
940,-0.06581394078291038,0.06588218160884839
941,-0.06581394078291038,0.06588218160884839
942,-0.06581394078291038,0.06588218160884839
943,-0.06581394078291038,0.06588218160884839
944,-0.06581394078291038,0.06588218160884839
945,-0.06581394078291038,0.06588218160884839
946,-0.06581394078291038,0.06588218160884839
947,-0.06581394078291038,0.06588218160884839
948,-0.06581394078291038,0.06588218160884839
949,-0.06581394078291038,0.06588218160884839
950,-0.06581394078291038,0.06588218160884839
951,-0.06581394078291038,0.06588218160884839
952,-0.06581394078291038,0.06588218160884839
953,-0.06581394078291038,0.06588218160884839
954,-0.06581394078291038,0.06588218160884839
955,-0.06581394078291038,0.06588218160884839
956,-0.06581394078291038,0.06588218160884839
957,-0.06581394078291038,0.06588218160884839
958,-0.06581394078291038,0.06588218160884839
959,-0.06581394078291038,0.06588218160884839
960,-0.06581394078291038,0.06588218160884839
961,-0.06581394078291038,0.06588218160884839
962,-0.06581394078291038,0.06588218160884839
963,-0.06581394078291038,0.06588218160884839
964,-0.06581394078291038,0.06588218160884839
965,-0.06581394078291038,0.06588218160884839
966,-0.06581394078291038,0.06588218160884839
967,-0.06581394078291038,0.06588218160884839
968,-0.06581394078291038,0.06588218160884839
969,-0.06581394078291038,0.06588218160884839
970,-0.06581394078291038,0.06588218160884839
971,-0.06581394078291038,0.06588218160884839
972,-0.06581394078291038,0.06588218160884839
973,-0.06581394078291038,0.06588218160884839
974,-0.06581394078291038,0.06588218160884839
975,-0.06581394078291038,0.06588218160884839
976,-0.06581394078291038,0.06588218160884839
977,-0.06581394078291038,0.06588218160884839
978,-0.06581394078291038,0.06588218160884839
979,-0.06581394078291038,0.06588218160884839
980,-0.06581394078291038,0.06588218160884839
981,-0.06581394078291038,0.06588218160884839
982,-0.06581394078291038,0.06588218160884839
983,-0.06581394078291038,0.06588218160884839
984,-0.06581394078291038,0.06588218160884839
985,-0.06581394078291038,0.06588218160884839
986,-0.06581394078291038,0.06588218160884839
987,-0.06581394078291038,0.06588218160884839
988,-0.06581394078291038,0.06588218160884839
989,-0.06581394078291038,0.06588218160884839
990,-0.06581394078291038,0.06588218160884839
991,-0.06581394078291038,0.06588218160884839
992,-0.06581394078291038,0.06588218160884839
993,-0.06581394078291038,0.06588218160884839
994,-0.06581394078291038,0.06588218160884839
995,-0.06581394078291038,0.06588218160884839
996,-0.06581394078291038,0.06588218160884839
997,-0.06581394078291038,0.06588218160884839
998,-0.06581394078291038,0.06588218160884839
999,-0.06581394078291038,0.06588218160884839
1000,-0.06581394078291038,0.06588218160884839
